{
  "direct_primitive_same_scale": {
    "square_dim": 64,
    "physical_slots": 8192,
    "direct_pmult_single_us_median": 3316.79052734375,
    "direct_add_single_us_median": 116.0810546875,
    "direct_rotate_single_us_median": 223.6229248046875,
    "rotate_steps_used": [
      -63,
      -32,
      -16,
      -8,
      -4,
      -2,
      -1,
      1,
      2,
      3,
      4,
      5,
      6,
      7,
      8,
      9,
      10,
      11,
      12,
      13,
      14,
      15,
      16,
      17,
      18,
      19,
      20,
      21,
      22,
      23,
      24,
      25,
      26,
      27,
      28,
      29,
      30,
      31,
      32,
      33,
      34,
      35,
      36,
      37,
      38,
      39,
      40,
      41,
      42,
      43,
      44,
      45,
      46,
      47,
      48,
      49,
      50,
      51,
      52,
      53,
      54,
      55,
      56,
      57,
      58,
      59,
      60,
      61,
      62,
      63
    ]
  },
  "case_1_square": {
    "case_name": "compare_cached_64x64__64x64",
    "square_dim": 64,
    "orig_input_shape": [
      64,
      64
    ],
    "orig_weight_shape": [
      64,
      64
    ],
    "plain_reference_us_median": 12.587158203125,
    "encrypt_us_median": 13040.1201171875,
    "decrypt_us_median": 17537.003173828125,
    "bsgs_cache_build_us": 144881.01977539062,
    "bsgs_cache_hits": 0,
    "bsgs_cache_misses": 1,
    "bsgs_core_us_median": 453612.1560058594,
    "bsgs_plain_vs_he_max_abs_err": 2.187783287865841e-11,
    "bsgs_y_he_first_row": [
      -1.9650899190929783,
      0.6681476584945919,
      0.4160932797129435,
      0.2703731156637025,
      -1.856937641428976,
      1.4169891280875035,
      -1.8826025632534469,
      -0.7113965231115149,
      2.2067710993233733,
      -0.8048592170493025,
      -2.267693356805079,
      1.9835320699584624,
      -2.0533982826309574,
      0.18483960116493997,
      -0.7120824793625564,
      0.9505215187880016,
      -2.0118690155824233,
      -1.6195931118423792,
      -1.0091985838238609,
      -0.6018517071218358,
      0.23876745084111864,
      1.5849535616889223,
      1.4667706379751686,
      2.002208166982853,
      0.8870658377119761,
      -0.8861039926719326,
      -2.3106537458901797,
      3.624544148796552,
      1.1888275243050286,
      1.2645429502285561,
      -0.2841388928839989,
      -3.372407974365689,
      0.5132614248099938,
      -1.8538814701557196,
      -0.18049501427521714,
      1.8494316634854693,
      2.3582179072947866,
      -3.2213732687010888,
      -1.5341986671385481,
      -0.04459296791450636,
      -1.0054623358282695,
      -0.08506373066588417,
      2.926034469615293,
      0.2861383333086942,
      0.49220232217716803,
      -0.7938324674187371,
      0.45353124827805386,
      -0.06121736448220476,
      0.3220807423341192,
      0.9590073622666677,
      0.26372375719607893,
      0.8994744094078967,
      -1.1658769687010324,
      1.0456049619498105,
      0.29119961469701977,
      0.3410620450141511,
      0.20684547991226557,
      -0.6871934592464554,
      0.05651028158119085,
      2.329949178921563,
      0.3381179348459451,
      0.9751987737147119,
      1.8975361256331202,
      0.48741314239711375
    ],
    "bsgs_kernel_primitive_stats": {
      "pMult_count": 127,
      "pMult_total_us": 427693.4609375,
      "add_count": 126,
      "add_total_us": 16125.313720703125,
      "rotate_count": 29,
      "rotate_total_us": 7626.98193359375,
      "pMult_avg_us": 3367.6650467519685,
      "add_avg_us": 127.97868032304068,
      "rotate_avg_us": 262.9993770204741
    },
    "jkls_core_us_median": 604709.123046875,
    "jkls_plain_vs_he_max_abs_err": 3.984812479984612e-11,
    "jkls_y_he_first_row": [
      -1.9650899190916495,
      0.6681476584886397,
      0.41609327971378024,
      0.2703731156651816,
      -1.8569376414222718,
      1.416989128091593,
      -1.8826025632724286,
      -0.7113965231309334,
      2.2067710993154135,
      -0.804859217060901,
      -2.2676933567999953,
      1.9835320699548837,
      -2.0533982826423873,
      0.18483960115014936,
      -0.7120824793754287,
      0.9505215188018764,
      -2.0118690155808596,
      -1.619593111831674,
      -1.0091985838205715,
      -0.6018517071121208,
      0.23876745084132858,
      1.5849535616758317,
      1.466770637966187,
      2.002208166978341,
      0.8870658377155392,
      -0.8861039926776169,
      -2.310653745881244,
      3.62454414879454,
      1.1888275242966435,
      1.2645429502401337,
      -0.28413889289414035,
      -3.3724079743542315,
      0.5132614248188705,
      -1.8538814701600235,
      -0.18049501427225956,
      1.8494316634737888,
      2.358217907300457,
      -3.221373268701586,
      -1.5341986671276533,
      -0.04459296790901049,
      -1.0054623358218875,
      -0.08506373067176579,
      2.9260344696184535,
      0.2861383333144172,
      0.4922023221891096,
      -0.7938324674158607,
      0.45353124827266333,
      -0.06121736448853376,
      0.3220807423343198,
      0.9590073622669343,
      0.26372375719630115,
      0.8994744094182271,
      -1.1658769686944805,
      1.0456049619414804,
      0.2911996146880961,
      0.34106204501342113,
      0.20684547990613303,
      -0.6871934592418064,
      0.056510281593030724,
      2.329949178938309,
      0.33811793484266783,
      0.9751987737106368,
      1.8975361256307068,
      0.4874131423952364
    ],
    "jkls_kernel_primitive_stats": {
      "pMult_count": 128,
      "pMult_total_us": 428762.92236328125,
      "add_count": 447,
      "add_total_us": 52185.49609375,
      "rotate_count": 447,
      "rotate_total_us": 99932.30786132812,
      "pMult_avg_us": 3349.7103309631348,
      "add_avg_us": 116.74607627237137,
      "rotate_avg_us": 223.56220998059985
    },
    "bsgs_core_vs_plain_ratio": 36037.694027969046,
    "jkls_core_vs_plain_ratio": 48041.751226797525,
    "jkls_core_over_bsgs_core_ratio": 1.3330972617035948,
    "bsgs_estimated_core_from_direct_us": 442343.6746826172,
    "jkls_estimated_core_from_direct_us": 576396.8663330078
  },
  "case_2_rect_input": {
    "case_name": "compare_cached_8x64__64x64",
    "square_dim": 64,
    "orig_input_shape": [
      8,
      64
    ],
    "orig_weight_shape": [
      64,
      64
    ],
    "plain_reference_us_median": 3.447998046875,
    "encrypt_us_median": 13657.951171875,
    "decrypt_us_median": 17871.602783203125,
    "bsgs_cache_build_us": 149781.28686523438,
    "bsgs_cache_hits": 0,
    "bsgs_cache_misses": 1,
    "bsgs_core_us_median": 455784.68701171875,
    "bsgs_plain_vs_he_max_abs_err": 2.3581525621096944e-11,
    "bsgs_y_he_first_row": [
      1.7520107374562996,
      -0.7663841770147883,
      -0.6879197310056093,
      -1.0446337354547444,
      1.0499637780547244,
      1.31432897973035,
      0.974131542459593,
      2.7686867403606668,
      1.2229319817770448,
      1.4867892818898891,
      0.8118361149888522,
      -0.1111720064085085,
      1.7461024780258403,
      1.4632640746462033,
      2.127592079562231,
      3.8419651862649937,
      1.918030017571995,
      -2.096845787424039,
      -1.8706705642107424,
      1.0326013357841024,
      -0.3020162229659127,
      -0.9283364217084817,
      -1.0167332625466914,
      -0.7413099490876993,
      1.989238127565614,
      -2.4822775101610848,
      -1.2324836426263546,
      0.8429860770648447,
      0.11836178967429146,
      -0.8858503036711695,
      0.6489215921316168,
      -1.2546963625733316,
      2.0734009966181715,
      -4.6822801283723905,
      3.2651012428767485,
      -0.6483181170723161,
      -0.7045037575300948,
      -3.272203066647661,
      0.4278844068046595,
      -1.682744701330446,
      -1.975855944469475,
      0.2910822226621196,
      -0.36474452040321786,
      1.222985908262643,
      -1.745243698201608,
      -1.0088082509361083,
      -2.6430363638312553,
      -1.757543748210705,
      1.3997618856254166,
      -0.22938814565412236,
      -1.413532413654923,
      -0.4493051790862528,
      1.810926573989369,
      -0.8310475803391122,
      1.1197193321456111,
      -5.440007992222946,
      -0.3985142714018376,
      0.014626548827385287,
      1.0588929947620023,
      0.5204094500240692,
      -2.7776557575852467,
      -1.0293559508605759,
      0.8027145269435453,
      0.5577695166216647
    ],
    "bsgs_kernel_primitive_stats": {
      "pMult_count": 127,
      "pMult_total_us": 430289.2077636719,
      "add_count": 126,
      "add_total_us": 16325.22705078125,
      "rotate_count": 29,
      "rotate_total_us": 6988.65234375,
      "pMult_avg_us": 3388.1039981391486,
      "add_avg_us": 129.56529405381946,
      "rotate_avg_us": 240.98801185344828
    },
    "jkls_core_us_median": 610300.4519042969,
    "jkls_plain_vs_he_max_abs_err": 3.037170515085563e-11,
    "jkls_y_he_first_row": [
      1.7520107374581801,
      -0.7663841770325958,
      -0.6879197310128742,
      -1.0446337354729092,
      1.049963778054413,
      1.3143289797201902,
      0.9741315424622514,
      2.7686867403623943,
      1.222931981784664,
      1.4867892818967279,
      0.8118361150006012,
      -0.111172006414276,
      1.746102477998333,
      1.4632640746493573,
      2.127592079551342,
      3.841965186268944,
      1.9180300175710927,
      -2.0968457874191317,
      -1.8706705642130532,
      1.0326013357838317,
      -0.3020162230020815,
      -0.9283364217092246,
      -1.0167332625382095,
      -0.7413099490863648,
      1.9892381275523656,
      -2.4822775101646775,
      -1.2324836426293597,
      0.8429860770452625,
      0.11836178968039959,
      -0.8858503036633036,
      0.6489215921419179,
      -1.2546963625838259,
      2.0734009965948963,
      -4.682280128360675,
      3.265101242870911,
      -0.6483181170747848,
      -0.7045037575226456,
      -3.272203066661551,
      0.4278844067992457,
      -1.6827447013247927,
      -1.9758559444823725,
      0.2910822226594762,
      -0.3647445204073286,
      1.2229859082609806,
      -1.7452436981869783,
      -1.0088082509229561,
      -2.6430363638336574,
      -1.7575437482045382,
      1.399761885638521,
      -0.22938814564983467,
      -1.413532413645452,
      -0.44930517908848544,
      1.8109265739753972,
      -0.831047580353719,
      1.1197193321368,
      -5.440007992228469,
      -0.39851427141426615,
      0.014626548835720512,
      1.0588929947577432,
      0.5204094500259691,
      -2.777655757575162,
      -1.029355950851167,
      0.8027145269447704,
      0.5577695166100446
    ],
    "jkls_kernel_primitive_stats": {
      "pMult_count": 128,
      "pMult_total_us": 431676.2282714844,
      "add_count": 447,
      "add_total_us": 53110.652587890625,
      "rotate_count": 447,
      "rotate_total_us": 101308.39013671875,
      "pMult_avg_us": 3372.4705333709717,
      "add_avg_us": 118.81577760154502,
      "rotate_avg_us": 226.64069381816276
    },
    "bsgs_core_vs_plain_ratio": 132188.20916235927,
    "jkls_core_vs_plain_ratio": 177001.39141825392,
    "jkls_core_over_bsgs_core_ratio": 1.3390104347419758,
    "bsgs_estimated_core_from_direct_us": 442343.6746826172,
    "jkls_estimated_core_from_direct_us": 576396.8663330078
  },
  "case_3_rect_output": {
    "case_name": "compare_cached_8x64__64x128",
    "square_dim": 64,
    "orig_input_shape": [
      8,
      64
    ],
    "orig_weight_shape": [
      64,
      128
    ],
    "plain_reference_us_median": 4.5439453125,
    "encrypt_us_median": 13807.287841796875,
    "decrypt_us_median": 30477.287841796875,
    "bsgs_cache_build_us": 314562.5998535156,
    "bsgs_cache_hits": 0,
    "bsgs_cache_misses": 2,
    "bsgs_core_us_median": 924798.2709960938,
    "bsgs_plain_vs_he_max_abs_err": 1.7714052447104223e-11,
    "bsgs_y_he_first_row": [
      1.4930535607094562,
      0.273409581574515,
      1.1491065057170975,
      0.04495938981892607,
      2.032164726632515,
      0.3134392104350455,
      -0.27337384567537903,
      -0.9190915654637519,
      0.9135241179633092,
      -0.6023328017694538,
      -0.38143271943329426,
      -0.8842670879262003,
      -0.4944291285473354,
      2.0007405278571047,
      1.0697478318749865,
      1.1874345639826138,
      0.8481890569828553,
      -1.2074566077869229,
      1.771707361461828,
      -2.470975796027572,
      2.2458583239096526,
      1.1779397548911053,
      0.2578197158571488,
      0.6779384604596828,
      -0.30860489827817866,
      -4.228806719940555,
      0.002756713081002809,
      0.92503235040797,
      0.20595570824539017,
      0.6714808361498092,
      0.2917731476090242,
      -2.8143491019575455,
      -0.6344971105170305,
      1.3163088369715914,
      0.694609021318816,
      0.3547831304989328,
      0.4100654342687035,
      1.6378973296150823,
      -1.0267292876559828,
      2.058900475374103,
      0.2039951734832153,
      0.8131370462056459,
      4.630122087626507,
      0.3616228940847584,
      -0.9486604493198187,
      2.029172838553756,
      0.8118471431216254,
      -0.1930682641886313,
      -1.1842917769694965,
      1.392940917657869,
      0.832927250635076,
      0.4217905556366599,
      -0.4431818244385954,
      -0.1501198884792009,
      1.2500140571642004,
      -2.2795568116241003,
      0.8667695540800341,
      0.1481237463855213,
      -1.3595114548536338,
      1.2075429940573272,
      -0.5619495047592827,
      0.728204693826005,
      2.3948298901482885,
      0.8188272779646787,
      1.2129631824705513,
      0.43998873414354617,
      -2.1399167590463897,
      1.1645140509946186,
      1.849963463841395,
      -0.010749697097964823,
      -1.8762068274197041,
      -1.2403801383482806,
      1.167034164944401,
      -0.3847053979735689,
      -2.13829637684638,
      1.949011382995762,
      1.3661487134551,
      0.16835414457423994,
      0.4383283906339859,
      0.6549296702093925,
      -1.12514808326013,
      -2.362074716461304,
      -0.8945623390312811,
      2.016486988132978,
      -0.6464084152237889,
      -2.045096538259848,
      -1.5783118731395867,
      0.23964619236336113,
      -0.553535632699831,
      2.068236371018103,
      -0.012745317394591728,
      1.2363479700865283,
      -1.2865764138076696,
      2.8427173879573275,
      -1.15858422331899,
      0.8781492711393701,
      1.1511220538857814,
      -0.4952243113584624,
      -0.12010093007998172,
      -1.2242576823569067,
      0.08791808936201688,
      -2.4070379354725895,
      -0.8969961817817246,
      -0.2009874534019897,
      0.9052200762035512,
      2.4844996930214895,
      -1.5016009228672635,
      -0.16711241759223408,
      -0.25101944541784793,
      0.5135140355174398,
      -1.1121452278946193,
      1.3816777503986168,
      0.26092969786414844,
      -2.7878494048404505,
      0.9523358550961525,
      0.8307058099298635,
      0.8582085876766142,
      1.8135850991818128,
      0.903825838389152,
      0.8017129002113389,
      1.7065632881677584,
      1.5851107833415996,
      0.5242526949833608,
      2.4815493515733547,
      0.8562619783553421,
      -0.7030884945247559,
      0.5534582418591876,
      -0.536403946096185
    ],
    "bsgs_kernel_primitive_stats": {
      "pMult_count": 254,
      "pMult_total_us": 872781.9223632812,
      "add_count": 252,
      "add_total_us": 32703.459716796875,
      "rotate_count": 58,
      "rotate_total_us": 15039.0205078125,
      "pMult_avg_us": 3436.1493006428395,
      "add_avg_us": 129.775633796813,
      "rotate_avg_us": 259.29345703125
    },
    "jkls_core_us_median": 1213635.3649902344,
    "jkls_plain_vs_he_max_abs_err": 3.065414588832027e-11,
    "jkls_y_he_first_row": [
      1.4930535607244608,
      0.27340958157623957,
      1.149106505712457,
      0.04495938981738662,
      2.032164726631214,
      0.313439210436204,
      -0.27337384567890094,
      -0.9190915654720558,
      0.913524117966416,
      -0.6023328017777707,
      -0.38143271943279,
      -0.8842670879187251,
      -0.49442912854908266,
      2.0007405278531527,
      1.0697478318872056,
      1.1874345639864379,
      0.8481890569916132,
      -1.2074566077959923,
      1.7717073614547034,
      -2.47097579602108,
      2.2458583239177856,
      1.1779397548853328,
      0.2578197158517079,
      0.6779384604466205,
      -0.3086048982802649,
      -4.228806719928467,
      0.0027567130969234142,
      0.9250323504220813,
      0.20595570824281925,
      0.6714808361414404,
      0.2917731476099701,
      -2.81434910195339,
      -0.6344971105132198,
      1.3163088369799263,
      0.6946090213213447,
      0.3547831305027891,
      0.41006543426342323,
      1.6378973296108643,
      -1.0267292876564469,
      2.0589004753644606,
      0.2039951734746507,
      0.8131370462085176,
      4.630122087614472,
      0.3616228940720113,
      -0.9486604493376021,
      2.029172838545661,
      0.8118471431112684,
      -0.19306826419758039,
      -1.1842917769605952,
      1.3929409176600527,
      0.8329272506420141,
      0.42179055566033524,
      -0.4431818244559267,
      -0.1501198884852928,
      1.2500140571510832,
      -2.279556811631835,
      0.8667695540896706,
      0.1481237463876191,
      -1.3595114548660454,
      1.2075429940631912,
      -0.561949504755209,
      0.7282046938217737,
      2.3948298901520317,
      0.8188272779607937,
      1.2129631824645837,
      0.43998873414587597,
      -2.139916759038535,
      1.1645140510082959,
      1.8499634638329743,
      -0.010749697100202656,
      -1.8762068274140036,
      -1.2403801383753157,
      1.1670341649455616,
      -0.38470539798178754,
      -2.1382963768526393,
      1.9490113829902203,
      1.3661487134563302,
      0.16835414457340478,
      0.43832839064580015,
      0.6549296702152035,
      -1.125148083255858,
      -2.3620747164662843,
      -0.8945623390392451,
      2.0164869881385536,
      -0.6464084152081667,
      -2.0450965382724773,
      -1.578311873134005,
      0.23964619237381657,
      -0.5535356327024199,
      2.0682363710091822,
      -0.012745317402127762,
      1.2363479700706537,
      -1.286576413792197,
      2.8427173879528063,
      -1.158584223329111,
      0.8781492711442027,
      1.1511220538956464,
      -0.4952243113658838,
      -0.1201009300665076,
      -1.2242576823580515,
      0.08791808937116045,
      -2.407037935475768,
      -0.8969961817873281,
      -0.20098745338810284,
      0.9052200762182251,
      2.4844996930307817,
      -1.5016009228649632,
      -0.16711241759778286,
      -0.2510194454177226,
      0.5135140355032727,
      -1.1121452278861899,
      1.381677750390868,
      0.2609296978653038,
      -2.787849404836741,
      0.9523358551043074,
      0.8307058099332988,
      0.8582085876809996,
      1.8135850991715072,
      0.9038258384080307,
      0.8017129002168756,
      1.7065632881624673,
      1.5851107833392872,
      0.5242526949507814,
      2.4815493515684897,
      0.8562619783545183,
      -0.7030884945165045,
      0.5534582418576117,
      -0.5364039460854839
    ],
    "jkls_kernel_primitive_stats": {
      "pMult_count": 256,
      "pMult_total_us": 858325.9287109375,
      "add_count": 894,
      "add_total_us": 105717.115234375,
      "rotate_count": 894,
      "rotate_total_us": 201106.642578125,
      "pMult_avg_us": 3352.8356590270996,
      "add_avg_us": 118.25180674986018,
      "rotate_avg_us": 224.9515017652405
    },
    "bsgs_core_vs_plain_ratio": 203523.19568020632,
    "jkls_core_vs_plain_ratio": 267088.4620137546,
    "jkls_core_over_bsgs_core_ratio": 1.3123244312330258,
    "bsgs_estimated_core_from_direct_us": 884687.3493652344,
    "jkls_estimated_core_from_direct_us": 1152793.7326660156
  }
}